{
  "type": "LSTM",
  "options": {
    "inputSize": 33,
    "inputRange": 33,
    "hiddenSizes": [
      20,
      20
    ],
    "outputSize": 33,
    "learningRate": 0.01,
    "decayRate": 0.999,
    "smoothEps": 1e-8,
    "regc": 0.000001,
    "clipval": 5,
    "json": null,
    "dataFormatter": {
      "values": [
        "Butuh power supply baru",
        "Kapasitas harddisk tidak cukup",
        "Programnya jalan, tapi ada bug",
        "Unit test gagal",
        "ada bug di dalam code",
        "beliin laptop",
        "code",
        "computer",
        "drive",
        "harddisk",
        "hardware",
        "i love computers",
        "it needs more memory",
        "memory swap",
        "paling suka maen games",
        "pc rusak",
        "power supply",
        "program",
        "programming",
        "software",
        "test code",
        "unit-tests"
      ],
      "indexTable": {
        "B": 0,
        "u": 1,
        "t": 2,
        "h": 3,
        " ": 4,
        "p": 5,
        "o": 6,
        "w": 7,
        "e": 8,
        "r": 9,
        "s": 10,
        "l": 11,
        "y": 12,
        "b": 13,
        "a": 14,
        "K": 15,
        "i": 16,
        "d": 17,
        "k": 18,
        "c": 19,
        "P": 20,
        "g": 21,
        "m": 22,
        "n": 23,
        "j": 24,
        ",": 25,
        "U": 26,
        "v": 27,
        "f": 28,
        "-": 29,
        "stop-input": 30,
        "start-output": 31,
        "unrecognized": 32
      },
      "characterTable": {
        "0": "B",
        "1": "u",
        "2": "t",
        "3": "h",
        "4": " ",
        "5": "p",
        "6": "o",
        "7": "w",
        "8": "e",
        "9": "r",
        "10": "s",
        "11": "l",
        "12": "y",
        "13": "b",
        "14": "a",
        "15": "K",
        "16": "i",
        "17": "d",
        "18": "k",
        "19": "c",
        "20": "P",
        "21": "g",
        "22": "m",
        "23": "n",
        "24": "j",
        "25": ",",
        "26": "U",
        "27": "v",
        "28": "f",
        "29": "-",
        "30": "stop-input",
        "31": "start-output",
        "32": "unrecognized"
      },
      "characters": [
        "B",
        "u",
        "t",
        "h",
        " ",
        "p",
        "o",
        "w",
        "e",
        "r",
        "s",
        "l",
        "y",
        "b",
        "a",
        "K",
        "i",
        "d",
        "k",
        "c",
        "P",
        "g",
        "m",
        "n",
        "j",
        ",",
        "U",
        "v",
        "f",
        "-",
        "stop-input",
        "start-output",
        "unrecognized"
      ]
    }
  },
  "input": {
    "rows": 34,
    "columns": 33,
    "weights": {
      "0": 1.2239503860473633,
      "1": 0.04661203920841217,
      "2": -0.04607981815934181,
      "3": -2.4347891807556152,
      "4": -0.004994691349565983,
      "5": 0.8664106130599976,
      "6": 1.8751180171966553,
      "7": -1.0539923906326294,
      "8": -1.022027850151062,
      "9": -0.282268226146698,
      "10": 0.007817700505256653,
      "11": 3.3843140602111816,
      "12": -0.21535596251487732,
      "13": -0.29734548926353455,
      "14": -0.7436907291412354,
      "15": -2.139479875564575,
      "16": 0.21260635554790497,
      "17": -1.7509918212890625,
      "18": 0.2885062098503113,
      "19": -1.7623943090438843,
      "20": -0.7569295167922974,
      "21": 0.4466431140899658,
      "22": -0.7010242938995361,
      "23": 0.36349204182624817,
      "24": -0.6003989577293396,
      "25": 0.7768731117248535,
      "26": -1.934195637702942,
      "27": -0.5007514953613281,
      "28": 1.6539968252182007,
      "29": 0.5572665333747864,
      "30": -0.5699395537376404,
      "31": 1.0752034187316895,
      "32": 1.430756688117981,
      "33": 7.644075870513916,
      "34": -9.585219383239746,
      "35": 3.672267436981201,
      "36": 1.2860805988311768,
      "37": 5.306585311889648,
      "38": -6.239953517913818,
      "39": -7.885996341705322,
      "40": -9.375823974609375,
      "41": 9.546136856079102,
      "42": -0.03939187899231911,
      "43": -1.7806205749511719,
      "44": 3.4503908157348633,
      "45": -3.948965311050415,
      "46": 7.031747817993164,
      "47": -4.851397514343262,
      "48": 3.7289743423461914,
      "49": 0.9628148078918457,
      "50": -2.006403923034668,
      "51": 4.658641815185547,
      "52": 3.3081815242767334,
      "53": -0.08785638213157654,
      "54": -4.8563385009765625,
      "55": 8.575695991516113,
      "56": -2.413771390914917,
      "57": -2.1136302947998047,
      "58": -2.0414834022521973,
      "59": 5.255053520202637,
      "60": 19.2413387298584,
      "61": -10.422713279724121,
      "62": 6.140575408935547,
      "63": -16.74898910522461,
      "64": -5.569480895996094,
      "65": 8.819416046142578,
      "66": -0.743694007396698,
      "67": -0.3374180197715759,
      "68": -3.9284603595733643,
      "69": 2.646362543106079,
      "70": -1.32468843460083,
      "71": 2.0791406631469727,
      "72": 0.5512067079544067,
      "73": -0.5214734077453613,
      "74": -2.0044667720794678,
      "75": 0.44511839747428894,
      "76": 2.866133451461792,
      "77": -0.8679592609405518,
      "78": -2.2287793159484863,
      "79": 1.4269344806671143,
      "80": 2.193356990814209,
      "81": 2.316138744354248,
      "82": 2.573852300643921,
      "83": 0.756601095199585,
      "84": -0.7461534142494202,
      "85": -0.7438092827796936,
      "86": -0.7973127365112305,
      "87": 2.5296452045440674,
      "88": -1.5650593042373657,
      "89": -1.2749627828598022,
      "90": -1.5155954360961914,
      "91": -1.1758486032485962,
      "92": 4.228559970855713,
      "93": 0.41922661662101746,
      "94": 0.758307695388794,
      "95": 4.480585098266602,
      "96": 1.3693021535873413,
      "97": 0.48912158608436584,
      "98": -1.8498032093048096,
      "99": -1.4242668151855469,
      "100": -0.8929756283760071,
      "101": -0.8595502972602844,
      "102": 0.990382194519043,
      "103": -1.2749415636062622,
      "104": -0.5650348663330078,
      "105": -0.1487613171339035,
      "106": 0.0768960565328598,
      "107": 1.2998123168945312,
      "108": 2.500340223312378,
      "109": -0.4637284278869629,
      "110": 0.3279762864112854,
      "111": -0.20758056640625,
      "112": -1.405184030532837,
      "113": -0.6745436191558838,
      "114": 3.0053694248199463,
      "115": 0.4896625578403473,
      "116": 1.4366168975830078,
      "117": -1.068474292755127,
      "118": -0.950333297252655,
      "119": 1.068711519241333,
      "120": 1.286529779434204,
      "121": -1.355526328086853,
      "122": -0.20768529176712036,
      "123": -1.1345858573913574,
      "124": -1.0582735538482666,
      "125": -0.7886115312576294,
      "126": -0.4648878276348114,
      "127": -3.625556230545044,
      "128": -1.114902138710022,
      "129": 1.5792758464813232,
      "130": -2.294386625289917,
      "131": -1.6526203155517578,
      "132": 2.587067127227783,
      "133": 1.8310883045196533,
      "134": 1.7112269401550293,
      "135": -5.711791515350342,
      "136": -0.5543938279151917,
      "137": -0.12232165038585663,
      "138": 0.22422803938388824,
      "139": -0.17319056391716003,
      "140": 0.14878210425376892,
      "141": 3.3623201847076416,
      "142": 0.3952336609363556,
      "143": -1.273542046546936,
      "144": -0.19646193087100983,
      "145": 1.2543224096298218,
      "146": -3.6109681129455566,
      "147": 0.18316806852817535,
      "148": 1.4805877208709717,
      "149": -2.7255070209503174,
      "150": -1.2903531789779663,
      "151": 0.506614089012146,
      "152": -1.0360320806503296,
      "153": -2.195772409439087,
      "154": -1.7705038785934448,
      "155": 1.3599265813827515,
      "156": -1.4351246356964111,
      "157": 0.22429898381233215,
      "158": -5.957969665527344,
      "159": 0.3140049874782562,
      "160": -0.2835666537284851,
      "161": -1.0894079208374023,
      "162": 0.357899010181427,
      "163": -2.227588653564453,
      "164": -0.6616986989974976,
      "165": 1.9469767808914185,
      "166": -1.1217048168182373,
      "167": 1.0760389566421509,
      "168": 1.176700472831726,
      "169": -0.017016395926475525,
      "170": -0.6613484025001526,
      "171": -2.106865406036377,
      "172": 2.1021342277526855,
      "173": 1.8093494176864624,
      "174": 4.185506820678711,
      "175": -3.1256282329559326,
      "176": 4.200290203094482,
      "177": -0.15776938199996948,
      "178": 1.2231075763702393,
      "179": 1.5567412376403809,
      "180": 1.1889711618423462,
      "181": -0.8684356212615967,
      "182": -1.3948605060577393,
      "183": -0.4878266453742981,
      "184": -2.483262062072754,
      "185": -2.0110206604003906,
      "186": 0.6234259605407715,
      "187": 0.8167790174484253,
      "188": -3.5705935955047607,
      "189": -4.458092212677002,
      "190": 0.4089969992637634,
      "191": 0.0599970743060112,
      "192": 2.6241824626922607,
      "193": -2.4605088233947754,
      "194": 3.9645040035247803,
      "195": -1.7401419878005981,
      "196": 0.8436347246170044,
      "197": 1.2882065773010254,
      "198": 2.2741787433624268,
      "199": 0.20763295888900757,
      "200": 3.7917165756225586,
      "201": -3.759619951248169,
      "202": -1.298281192779541,
      "203": -4.029366493225098,
      "204": 0.6360400319099426,
      "205": -0.22178754210472107,
      "206": -0.22076661884784698,
      "207": 1.53181791305542,
      "208": -0.9399302005767822,
      "209": 0.6481027007102966,
      "210": 0.8636890053749084,
      "211": 2.2672557830810547,
      "212": -5.357239723205566,
      "213": 0.24359455704689026,
      "214": 2.149110794067383,
      "215": -3.4295592308044434,
      "216": -0.8817898035049438,
      "217": 0.07262952625751495,
      "218": -3.4204306602478027,
      "219": -2.038560628890991,
      "220": 1.9402785301208496,
      "221": 2.386686086654663,
      "222": 1.6095389127731323,
      "223": 0.7151772379875183,
      "224": -7.098362445831299,
      "225": -0.5503432154655457,
      "226": -0.4676879048347473,
      "227": -4.041642189025879,
      "228": 1.2639721632003784,
      "229": 0.04278888925909996,
      "230": 0.6725282073020935,
      "231": -0.3316650092601776,
      "232": 1.2581374645233154,
      "233": 1.4738386869430542,
      "234": 0.6052260994911194,
      "235": 0.3743434250354767,
      "236": -0.5584666728973389,
      "237": -0.7833723425865173,
      "238": -0.6209713816642761,
      "239": -0.7810388803482056,
      "240": -0.4877694845199585,
      "241": -0.47832468152046204,
      "242": 2.8831093311309814,
      "243": -0.4050779640674591,
      "244": 1.9110121726989746,
      "245": -1.1287591457366943,
      "246": -1.6330833435058594,
      "247": -1.8383641242980957,
      "248": -0.35435864329338074,
      "249": 1.5690867900848389,
      "250": -4.297952651977539,
      "251": -2.602485179901123,
      "252": 0.45428183674812317,
      "253": -0.8269095420837402,
      "254": -1.4002044200897217,
      "255": -1.1312942504882812,
      "256": -0.3134009540081024,
      "257": 1.2749497890472412,
      "258": -0.85505211353302,
      "259": 0.16920624673366547,
      "260": 0.3117183744907379,
      "261": -1.7217488288879395,
      "262": 0.29851850867271423,
      "263": 1.6165030002593994,
      "264": 1.3456530570983887,
      "265": -0.07804593443870544,
      "266": 3.558032274246216,
      "267": -1.5586943626403809,
      "268": -0.2085767239332199,
      "269": 0.6045379042625427,
      "270": -0.3823339343070984,
      "271": 0.5546613335609436,
      "272": -0.3770458698272705,
      "273": 1.0599448680877686,
      "274": 0.16629625856876373,
      "275": -0.41864535212516785,
      "276": -0.9944289326667786,
      "277": -0.30360209941864014,
      "278": -0.736967921257019,
      "279": 1.4803706407546997,
      "280": -0.9676072001457214,
      "281": -0.5124276876449585,
      "282": -2.053579807281494,
      "283": -0.591424822807312,
      "284": -1.0692116022109985,
      "285": 0.5342705249786377,
      "286": -1.6809052228927612,
      "287": 1.0854003429412842,
      "288": -1.0644798278808594,
      "289": -2.8094558715820312,
      "290": -2.015170097351074,
      "291": 0.9226821660995483,
      "292": -2.350461721420288,
      "293": 0.36786022782325745,
      "294": 0.7708145976066589,
      "295": -1.576709508895874,
      "296": -0.11486402899026871,
      "297": 0.9144452810287476,
      "298": 0.7039315700531006,
      "299": 0.12007983028888702,
      "300": -1.3913240432739258,
      "301": -1.270371437072754,
      "302": -1.2979992628097534,
      "303": 1.0354410409927368,
      "304": -0.19837909936904907,
      "305": -0.7738081216812134,
      "306": -1.23917555809021,
      "307": 0.17170724272727966,
      "308": 0.21411533653736115,
      "309": 0.25509095191955566,
      "310": 1.7785592079162598,
      "311": -0.5840820670127869,
      "312": -0.7442992329597473,
      "313": -0.3975681662559509,
      "314": 0.8154994249343872,
      "315": 0.523658812046051,
      "316": -0.04136257246136665,
      "317": 1.1933506727218628,
      "318": 0.20287799835205078,
      "319": 1.1533787250518799,
      "320": -0.017904067412018776,
      "321": 1.9127715826034546,
      "322": -1.0377399921417236,
      "323": -0.3698360323905945,
      "324": -0.205706387758255,
      "325": 0.2444181591272354,
      "326": 0.4262538552284241,
      "327": -0.9546110033988953,
      "328": 2.3966257572174072,
      "329": 1.0029680728912354,
      "330": -0.12446968257427216,
      "331": 0.6469219923019409,
      "332": 0.3441069424152374,
      "333": 0.46093976497650146,
      "334": -0.12892360985279083,
      "335": 1.452345371246338,
      "336": -0.06668560206890106,
      "337": 0.9597863554954529,
      "338": -1.3604788780212402,
      "339": -0.19981849193572998,
      "340": 0.2542998194694519,
      "341": -0.18949389457702637,
      "342": 0.03423502668738365,
      "343": 0.5505763292312622,
      "344": 2.9059178829193115,
      "345": -0.20880110561847687,
      "346": 3.4947903156280518,
      "347": 0.15714925527572632,
      "348": 0.8124951124191284,
      "349": -1.1289039850234985,
      "350": -1.5837275981903076,
      "351": 0.4339921474456787,
      "352": 0.13868989050388336,
      "353": -0.5672920346260071,
      "354": -0.601215124130249,
      "355": -0.001287536695599556,
      "356": 2.0040197372436523,
      "357": 0.18702645599842072,
      "358": 0.09807933121919632,
      "359": 2.774592876434326,
      "360": 0.3178723454475403,
      "361": 0.8189758658409119,
      "362": -0.4346017837524414,
      "363": 0.747462272644043,
      "364": 0.3057096302509308,
      "365": 2.0110466480255127,
      "366": 1.7305973768234253,
      "367": -0.8096306920051575,
      "368": -0.971895158290863,
      "369": 0.10339626669883728,
      "370": -0.5860996246337891,
      "371": -1.0504482984542847,
      "372": -1.1609547138214111,
      "373": -1.9691928625106812,
      "374": 2.1639559268951416,
      "375": 1.4563449621200562,
      "376": -0.2012202888727188,
      "377": -0.46117186546325684,
      "378": -2.308314323425293,
      "379": 0.8775436878204346,
      "380": -1.4004738330841064,
      "381": 1.9793387651443481,
      "382": -2.592270612716675,
      "383": 0.19158226251602173,
      "384": 0.13305088877677917,
      "385": 0.027117382735013962,
      "386": -0.28197038173675537,
      "387": 0.16237516701221466,
      "388": 1.0213500261306763,
      "389": -0.8780295252799988,
      "390": -2.392537832260132,
      "391": 0.35335686802864075,
      "392": 0.766025960445404,
      "393": -2.2427234649658203,
      "394": 0.9083685278892517,
      "395": -0.0015276442281901836,
      "396": -1.6912750005722046,
      "397": -0.047718510031700134,
      "398": -1.8426181077957153,
      "399": 2.7313473224639893,
      "400": 0.004272026009857655,
      "401": 0.19972939789295197,
      "402": -0.25652241706848145,
      "403": 1.7284094095230103,
      "404": -1.9062052965164185,
      "405": -2.0481984615325928,
      "406": -0.7412456274032593,
      "407": -5.030473709106445,
      "408": 0.5905160307884216,
      "409": 0.642174482345581,
      "410": 0.5020293593406677,
      "411": -3.411012887954712,
      "412": -0.26628124713897705,
      "413": 4.560266494750977,
      "414": -0.5738286375999451,
      "415": 5.083738327026367,
      "416": 2.5920655727386475,
      "417": -1.5068469047546387,
      "418": 2.912567138671875,
      "419": 1.6248055696487427,
      "420": 0.8300614356994629,
      "421": 2.997556209564209,
      "422": 3.5975706577301025,
      "423": -3.0791032314300537,
      "424": 5.447839736938477,
      "425": -1.895107626914978,
      "426": 1.956621527671814,
      "427": 2.7971224784851074,
      "428": -0.4727032482624054,
      "429": -0.06823337823152542,
      "430": 3.057647228240967,
      "431": 1.6405644416809082,
      "432": -7.915332794189453,
      "433": 1.221146821975708,
      "434": 1.1337553262710571,
      "435": 1.8615726232528687,
      "436": -5.0796732902526855,
      "437": -5.637111186981201,
      "438": 1.8499424457550049,
      "439": 4.932601451873779,
      "440": 2.262751340866089,
      "441": 1.0572227239608765,
      "442": 0.662834882736206,
      "443": -6.347400188446045,
      "444": 0.8087062835693359,
      "445": 1.6303331851959229,
      "446": -1.5204075574874878,
      "447": 6.134506702423096,
      "448": -5.088554382324219,
      "449": 2.8010711669921875,
      "450": 1.560716986656189,
      "451": 0.6410648226737976,
      "452": -4.365324974060059,
      "453": 1.2459946870803833,
      "454": 0.41529905796051025,
      "455": -7.527379035949707,
      "456": -7.462378025054932,
      "457": -0.709542453289032,
      "458": 0.1985170990228653,
      "459": -1.8902349472045898,
      "460": 4.423264503479004,
      "461": 0.6247958540916443,
      "462": 4.669590473175049,
      "463": -0.7611131072044373,
      "464": 6.7443528175354,
      "465": -4.355250835418701,
      "466": 4.377423286437988,
      "467": -1.0531063079833984,
      "468": -3.606642484664917,
      "469": -2.9344851970672607,
      "470": 0.4456513822078705,
      "471": -5.235818862915039,
      "472": 0.553828775882721,
      "473": 0.8941832780838013,
      "474": 1.0773388147354126,
      "475": -1.6469378471374512,
      "476": -5.636034965515137,
      "477": 2.466672897338867,
      "478": -1.6878269910812378,
      "479": 0.4791806936264038,
      "480": 3.1306943893432617,
      "481": -4.538760662078857,
      "482": 4.539161205291748,
      "483": -6.778213024139404,
      "484": -2.6086461544036865,
      "485": 3.6778905391693115,
      "486": 1.486366629600525,
      "487": 2.854973316192627,
      "488": -6.403472900390625,
      "489": 0.45386916399002075,
      "490": 1.9297903776168823,
      "491": -3.896955966949463,
      "492": -7.9199724197387695,
      "493": 4.545504570007324,
      "494": 1.9016987085342407,
      "495": -2.1661150455474854,
      "496": 0.6396300196647644,
      "497": 0.9207859039306641,
      "498": 0.7195636630058289,
      "499": 0.21629633009433746,
      "500": 0.888372004032135,
      "501": -1.0743017196655273,
      "502": 1.5717697143554688,
      "503": 0.6782791614532471,
      "504": 0.5131263732910156,
      "505": 0.7932542562484741,
      "506": 0.6438915729522705,
      "507": -0.9370097517967224,
      "508": 0.8787597417831421,
      "509": 2.288466691970825,
      "510": 0.2524629831314087,
      "511": 0.007069556042551994,
      "512": 0.9948650598526001,
      "513": -0.786475419998169,
      "514": -0.3435400128364563,
      "515": -3.2321929931640625,
      "516": -0.4388459026813507,
      "517": 0.004246662370860577,
      "518": 0.08118338882923126,
      "519": -0.18695272505283356,
      "520": -0.4310774505138397,
      "521": 0.5867968797683716,
      "522": 0.15797658264636993,
      "523": -1.141977071762085,
      "524": 0.8530394434928894,
      "525": 2.936784029006958,
      "526": -0.17681477963924408,
      "527": -0.1763824224472046,
      "528": -12.05833625793457,
      "529": 6.511269569396973,
      "530": 1.7408024072647095,
      "531": 0.42246007919311523,
      "532": -8.241802215576172,
      "533": 16.490665435791016,
      "534": -10.991910934448242,
      "535": 2.2821109294891357,
      "536": 10.656222343444824,
      "537": -1.8241603374481201,
      "538": -5.158188819885254,
      "539": -6.962684631347656,
      "540": -9.826692581176758,
      "541": 4.253167629241943,
      "542": 4.447760581970215,
      "543": 9.99313735961914,
      "544": 9.391329765319824,
      "545": 0.4415294826030731,
      "546": -11.977046966552734,
      "547": 2.8585004806518555,
      "548": 1.1529467105865479,
      "549": -5.760579586029053,
      "550": 0.6634874939918518,
      "551": 1.1975246667861938,
      "552": -7.000438690185547,
      "553": -3.976381778717041,
      "554": 9.498787879943848,
      "555": -0.761749267578125,
      "556": -4.702990531921387,
      "557": 0.8855531811714172,
      "558": 16.086713790893555,
      "559": -13.646357536315918,
      "560": -3.098247528076172,
      "561": -1.3909817934036255,
      "562": 0.5593505501747131,
      "563": 3.040221929550171,
      "564": -0.5892176032066345,
      "565": 0.052500516176223755,
      "566": 0.137318417429924,
      "567": -0.7875328660011292,
      "568": 4.590729236602783,
      "569": 0.7856946587562561,
      "570": 1.7053600549697876,
      "571": -4.436952590942383,
      "572": 0.5593497157096863,
      "573": 0.675491988658905,
      "574": -2.09291672706604,
      "575": 1.7352571487426758,
      "576": 4.386429786682129,
      "577": 2.1991350650787354,
      "578": -0.4090266227722168,
      "579": 0.19140101969242096,
      "580": -1.9896554946899414,
      "581": -2.277735948562622,
      "582": -1.9705281257629395,
      "583": -0.10763741284608841,
      "584": 0.319667786359787,
      "585": 1.8309396505355835,
      "586": 0.696240246295929,
      "587": -1.6990755796432495,
      "588": -1.6515717506408691,
      "589": -1.804880976676941,
      "590": -1.2896440029144287,
      "591": 1.7086011171340942,
      "592": 0.027790488675236702,
      "593": -3.358318328857422,
      "594": -2.7907190322875977,
      "595": -0.35335254669189453,
      "596": 0.3890068531036377,
      "597": -0.1839188188314438,
      "598": 2.1366639137268066,
      "599": -2.327254056930542,
      "600": -0.12179936468601227,
      "601": 1.7373780012130737,
      "602": -2.596766710281372,
      "603": -0.3779028356075287,
      "604": -1.3279169797897339,
      "605": -0.7261362075805664,
      "606": 1.9815136194229126,
      "607": -2.8569443225860596,
      "608": -0.9250257611274719,
      "609": 0.03600532189011574,
      "610": -0.5411927700042725,
      "611": 1.9977902173995972,
      "612": 4.448420524597168,
      "613": -0.6226401925086975,
      "614": 1.7014371156692505,
      "615": 1.8501850366592407,
      "616": 1.054575800895691,
      "617": -1.764898419380188,
      "618": 0.10983508080244064,
      "619": -0.6708056330680847,
      "620": -0.4998248517513275,
      "621": -3.9505579471588135,
      "622": -0.28609907627105713,
      "623": -4.604002475738525,
      "624": -2.2595720291137695,
      "625": -1.572854995727539,
      "626": -1.988656759262085,
      "627": -6.017402648925781,
      "628": 4.846860408782959,
      "629": 5.495226860046387,
      "630": -0.07646062225103378,
      "631": 3.132152795791626,
      "632": -0.09768503159284592,
      "633": -2.020993709564209,
      "634": -1.5672550201416016,
      "635": -2.01271653175354,
      "636": 2.4868977069854736,
      "637": 1.4436782598495483,
      "638": -0.8393421173095703,
      "639": 1.34186851978302,
      "640": -6.206432342529297,
      "641": -4.815677165985107,
      "642": 6.419856548309326,
      "643": -0.3059251308441162,
      "644": 2.2295305728912354,
      "645": 2.593101739883423,
      "646": -4.304809093475342,
      "647": 1.9767471551895142,
      "648": -5.315389633178711,
      "649": -6.720859527587891,
      "650": 1.849373698234558,
      "651": 0.08195406198501587,
      "652": 3.079685688018799,
      "653": -4.265475749969482,
      "654": -3.6771113872528076,
      "655": -0.2603316605091095,
      "656": -10.306984901428223,
      "657": -1.4716715812683105,
      "658": -0.9896718859672546,
      "659": -1.809861183166504,
      "660": -2.38624906539917,
      "661": -2.3158843517303467,
      "662": -1.5988136529922485,
      "663": 5.485914707183838,
      "664": -3.643007516860962,
      "665": -0.6008742451667786,
      "666": 1.0872894525527954,
      "667": 0.28223270177841187,
      "668": 3.1243863105773926,
      "669": 1.3601619005203247,
      "670": -2.3814568519592285,
      "671": -1.3126615285873413,
      "672": -3.747126340866089,
      "673": 4.700037479400635,
      "674": 5.5881876945495605,
      "675": -1.1770316362380981,
      "676": 5.0200605392456055,
      "677": 3.921513319015503,
      "678": -5.566477298736572,
      "679": -0.1602184921503067,
      "680": 1.768601894378662,
      "681": 1.420062780380249,
      "682": -2.8850646018981934,
      "683": -2.8480663299560547,
      "684": 1.065604567527771,
      "685": -0.7107329368591309,
      "686": 4.605971336364746,
      "687": -3.388545513153076,
      "688": -0.485382080078125,
      "689": 4.047980308532715,
      "690": -1.2421371936798096,
      "691": 0.12257365137338638,
      "692": -3.7085258960723877,
      "693": -1.0835590362548828,
      "694": -0.2895813584327698,
      "695": -0.5847376585006714,
      "696": -12.852994918823242,
      "697": 6.991446018218994,
      "698": 2.810048818588257,
      "699": -9.526891708374023,
      "700": 7.465658187866211,
      "701": -0.373657763004303,
      "702": -0.39496442675590515,
      "703": -3.788247585296631,
      "704": -0.12145821005105972,
      "705": 5.657251834869385,
      "706": -11.041491508483887,
      "707": -6.999966144561768,
      "708": 11.054912567138672,
      "709": -0.3513614237308502,
      "710": -1.0528870820999146,
      "711": 2.4480559825897217,
      "712": -6.612866401672363,
      "713": -8.273387908935547,
      "714": -2.1788105964660645,
      "715": -2.1760470867156982,
      "716": -9.614644050598145,
      "717": -3.0083112716674805,
      "718": -3.083820104598999,
      "719": -11.97925090789795,
      "720": -3.3506176471710205,
      "721": -6.024665355682373,
      "722": -12.86874771118164,
      "723": 17.142789840698242,
      "724": -11.28540325164795,
      "725": 2.3865411281585693,
      "726": 1.5575308799743652,
      "727": 4.978150367736816,
      "728": 6.660536766052246,
      "729": -0.7944169640541077,
      "730": 2.466324806213379,
      "731": -5.072176456451416,
      "732": 1.9037082195281982,
      "733": -1.3186590671539307,
      "734": -1.0018357038497925,
      "735": 0.24784138798713684,
      "736": 2.99287486076355,
      "737": 2.0765011310577393,
      "738": 3.8150479793548584,
      "739": -6.793399333953857,
      "740": -5.790210247039795,
      "741": -0.620421290397644,
      "742": 1.4320425987243652,
      "743": -2.8249614238739014,
      "744": 4.61585807800293,
      "745": 1.7086459398269653,
      "746": 0.9845535159111023,
      "747": -2.5191338062286377,
      "748": -3.0936686992645264,
      "749": 2.5130972862243652,
      "750": 2.5017099380493164,
      "751": 3.213017463684082,
      "752": -3.9117484092712402,
      "753": 0.010068311356008053,
      "754": 1.2116848230361938,
      "755": -0.5469094514846802,
      "756": 3.5013961791992188,
      "757": 0.8709625601768494,
      "758": 2.9107534885406494,
      "759": 2.8154757022857666,
      "760": -1.6314997673034668,
      "761": -2.264855146408081,
      "762": -3.2078542709350586,
      "763": 0.8914183378219604,
      "764": 1.90057373046875,
      "765": -3.1404995918273926,
      "766": -1.911130666732788,
      "767": 2.472336769104004,
      "768": 4.009522914886475,
      "769": -0.6719730496406555,
      "770": -0.3729446828365326,
      "771": -1.8631757497787476,
      "772": -0.43370217084884644,
      "773": -2.4254209995269775,
      "774": 2.818918466567993,
      "775": -2.5852303504943848,
      "776": 2.0905916690826416,
      "777": -2.410327911376953,
      "778": 2.9735279083251953,
      "779": 1.437682032585144,
      "780": -3.7937159538269043,
      "781": 1.989815592765808,
      "782": 2.213841438293457,
      "783": -1.0805943012237549,
      "784": -2.6845550537109375,
      "785": -3.1320579051971436,
      "786": 3.396141767501831,
      "787": -0.9604929685592651,
      "788": 0.002610723488032818,
      "789": 0.22562900185585022,
      "790": -3.6601574420928955,
      "791": 0.8473588228225708,
      "792": -0.8434024453163147,
      "793": -5.181591033935547,
      "794": -4.547133445739746,
      "795": 2.9998421669006348,
      "796": 0.16793380677700043,
      "797": 1.143474817276001,
      "798": -1.8709452152252197,
      "799": -2.527088165283203,
      "800": 2.8477401733398438,
      "801": -0.5085857510566711,
      "802": 1.343756079673767,
      "803": 0.02141374535858631,
      "804": -3.1652393341064453,
      "805": 1.4390414953231812,
      "806": 0.7421814203262329,
      "807": 2.1618685722351074,
      "808": -0.8361322283744812,
      "809": 5.75856351852417,
      "810": -1.5151996612548828,
      "811": -0.6546840071678162,
      "812": 1.1149990558624268,
      "813": -1.6350089311599731,
      "814": -2.4366400241851807,
      "815": 0.2603914737701416,
      "816": 2.060959815979004,
      "817": -0.9769870638847351,
      "818": 1.7236887216567993,
      "819": -0.49832236766815186,
      "820": 2.7552664279937744,
      "821": 0.8840243816375732,
      "822": -2.3213748931884766,
      "823": 0.10143137723207474,
      "824": 1.0442088842391968,
      "825": 0.9246634840965271,
      "826": -4.966279983520508,
      "827": 15.1580228805542,
      "828": -10.798774719238281,
      "829": -2.4020907878875732,
      "830": -1.5177196264266968,
      "831": -8.218565940856934,
      "832": -13.10832691192627,
      "833": 11.471901893615723,
      "834": 0.4621731638908386,
      "835": 6.889461994171143,
      "836": -2.8175575733184814,
      "837": -0.5896271467208862,
      "838": -8.408392906188965,
      "839": -16.483081817626953,
      "840": -0.12228080630302429,
      "841": 8.033239364624023,
      "842": -10.61032485961914,
      "843": 0.9375981688499451,
      "844": 0.33789581060409546,
      "845": -0.05205962434411049,
      "846": -14.221487045288086,
      "847": -0.24109506607055664,
      "848": 15.089343070983887,
      "849": -7.967587471008301,
      "850": 8.20975399017334,
      "851": -20.13599967956543,
      "852": -0.2350602149963379,
      "853": -5.105583667755127,
      "854": -10.543074607849121,
      "855": -6.957046031951904,
      "856": -6.374292850494385,
      "857": -2.6695079803466797,
      "858": -0.49237462878227234,
      "859": 3.6118252277374268,
      "860": -3.2107601165771484,
      "861": -1.8009660243988037,
      "862": -5.245123863220215,
      "863": 13.579718589782715,
      "864": -12.104703903198242,
      "865": 1.5698022842407227,
      "866": 6.223727226257324,
      "867": 8.542299270629883,
      "868": 3.9111106395721436,
      "869": 7.79877233505249,
      "870": -16.859458923339844,
      "871": -8.325584411621094,
      "872": -3.5603740215301514,
      "873": 9.692879676818848,
      "874": -7.810170650482178,
      "875": 13.524409294128418,
      "876": -0.2036350518465042,
      "877": -4.532420635223389,
      "878": 7.1432623863220215,
      "879": -13.569548606872559,
      "880": 9.347075462341309,
      "881": 8.72304630279541,
      "882": -8.147900581359863,
      "883": -10.716570854187012,
      "884": -10.478109359741211,
      "885": 4.91542387008667,
      "886": -13.981622695922852,
      "887": -2.3380348682403564,
      "888": -3.2289655208587646,
      "889": -5.284050464630127,
      "890": 2.998694658279419,
      "891": -3.489807605743408,
      "892": -3.8375301361083984,
      "893": -6.210713863372803,
      "894": 8.001880645751953,
      "895": -11.082194328308105,
      "896": -2.405550718307495,
      "897": -5.002118110656738,
      "898": 11.321052551269531,
      "899": 3.1888558864593506,
      "900": 2.4812190532684326,
      "901": -10.834583282470703,
      "902": -1.676202654838562,
      "903": -3.8670902252197266,
      "904": 1.0045491456985474,
      "905": 10.832965850830078,
      "906": -9.530355453491211,
      "907": 10.540861129760742,
      "908": 5.347928524017334,
      "909": -2.768416166305542,
      "910": -3.935955047607422,
      "911": -1.9238810539245605,
      "912": 11.339163780212402,
      "913": -4.691258907318115,
      "914": -0.4993753433227539,
      "915": 0.11544524878263474,
      "916": -0.1463593989610672,
      "917": 9.442047119140625,
      "918": 1.8401113748550415,
      "919": 1.9433510303497314,
      "920": 1.8816747665405273,
      "921": 5.53790283203125,
      "922": -6.432708740234375,
      "923": -9.841985702514648,
      "924": 3.0156209468841553,
      "925": -6.241847991943359,
      "926": -6.281113147735596,
      "927": -4.03115701675415,
      "928": 3.8559348583221436,
      "929": -0.00028678023954853415,
      "930": -1.5119277238845825,
      "931": -8.692030906677246,
      "932": -0.9576829671859741,
      "933": 6.363330364227295,
      "934": -0.27599772810935974,
      "935": -8.204291343688965,
      "936": -4.643486499786377,
      "937": -1.8498473167419434,
      "938": -7.120829105377197,
      "939": -3.3199143409729004,
      "940": 1.1690921783447266,
      "941": 3.3057165145874023,
      "942": -11.887182235717773,
      "943": 9.023159980773926,
      "944": 8.380279541015625,
      "945": -3.7349836826324463,
      "946": -6.44058084487915,
      "947": 3.6162450313568115,
      "948": -2.398085355758667,
      "949": 8.780665397644043,
      "950": -7.386836051940918,
      "951": 4.430056571960449,
      "952": 3.854454278945923,
      "953": -7.8208112716674805,
      "954": 3.890249490737915,
      "955": -1.6867806911468506,
      "956": 0.24283652007579803,
      "957": -0.40685465931892395,
      "958": -2.5400664806365967,
      "959": 2.4939281940460205,
      "960": -1.937415599822998,
      "961": -0.9809330701828003,
      "962": 3.193295478820801,
      "963": -4.043496131896973,
      "964": -3.022449254989624,
      "965": 2.3884568214416504,
      "966": -0.8302367329597473,
      "967": -1.9534568786621094,
      "968": 1.5690796375274658,
      "969": 0.4113589823246002,
      "970": -7.130153179168701,
      "971": -1.0523383617401123,
      "972": 2.2397024631500244,
      "973": -0.5925883054733276,
      "974": -1.1411515474319458,
      "975": -0.4155302345752716,
      "976": -0.9231880903244019,
      "977": -1.0791610479354858,
      "978": 0.5978118777275085,
      "979": 1.4274752140045166,
      "980": -1.1041709184646606,
      "981": -3.380910873413086,
      "982": 3.552239179611206,
      "983": -4.850980281829834,
      "984": -1.4013937711715698,
      "985": 4.101479530334473,
      "986": -3.3868846893310547,
      "987": -1.1372164487838745,
      "988": -1.9141327142715454,
      "989": 0.8463298082351685,
      "990": 6.986325263977051,
      "991": 5.07870626449585,
      "992": 14.054437637329102,
      "993": -17.98700714111328,
      "994": 2.4237923622131348,
      "995": -11.658543586730957,
      "996": 10.172253608703613,
      "997": 4.543879508972168,
      "998": -5.884342193603516,
      "999": -5.219533443450928,
      "1000": 5.686086654663086,
      "1001": -8.275189399719238,
      "1002": 4.170320510864258,
      "1003": -8.741640090942383,
      "1004": -1.4539434909820557,
      "1005": -5.220151901245117,
      "1006": -4.320253372192383,
      "1007": -6.689396858215332,
      "1008": 1.267066478729248,
      "1009": 5.416820526123047,
      "1010": 6.621891021728516,
      "1011": 6.889450550079346,
      "1012": -4.659331798553467,
      "1013": -0.43399232625961304,
      "1014": 14.985321044921875,
      "1015": 6.1142897605896,
      "1016": -6.957821369171143,
      "1017": -0.7946832776069641,
      "1018": -2.080142021179199,
      "1019": -6.343093395233154,
      "1020": 8.019035339355469,
      "1021": 2.0952558517456055,
      "1022": 6.221856117248535,
      "1023": 0.6527523994445801,
      "1024": -1.348678469657898,
      "1025": 1.9961497783660889,
      "1026": -0.40235787630081177,
      "1027": -0.6533952355384827,
      "1028": -0.16899152100086212,
      "1029": -0.060130856931209564,
      "1030": 1.4709137678146362,
      "1031": -0.3271188735961914,
      "1032": -2.603195905685425,
      "1033": -0.4565746486186981,
      "1034": 0.4458852708339691,
      "1035": -0.2941685914993286,
      "1036": 1.936760425567627,
      "1037": 0.9393638968467712,
      "1038": 0.6877186298370361,
      "1039": 0.3243906497955322,
      "1040": -2.0249946117401123,
      "1041": 0.9793638586997986,
      "1042": -1.82620108127594,
      "1043": 0.28348198533058167,
      "1044": -1.5804738998413086,
      "1045": 1.4921460151672363,
      "1046": 0.870825469493866,
      "1047": -0.5265154838562012,
      "1048": 0.3201741576194763,
      "1049": 0.6120360493659973,
      "1050": 1.8588355779647827,
      "1051": -1.755159616470337,
      "1052": 1.3041126728057861,
      "1053": -5.91780948638916,
      "1054": 1.8275259733200073,
      "1055": -1.4340006113052368,
      "1056": -1.186828374862671,
      "1057": 0.14842770993709564,
      "1058": -0.4950949549674988,
      "1059": 1.1379995346069336,
      "1060": 0.7698090672492981,
      "1061": 0.4376121759414673,
      "1062": -2.2018423080444336,
      "1063": -2.2276909351348877,
      "1064": -1.0128947496414185,
      "1065": -1.9131251573562622,
      "1066": 1.3525885343551636,
      "1067": 1.0045400857925415,
      "1068": 0.30193787813186646,
      "1069": -0.8239454030990601,
      "1070": -0.5100440979003906,
      "1071": 0.7858889698982239,
      "1072": -0.244223952293396,
      "1073": 1.9811819791793823,
      "1074": 0.9427266716957092,
      "1075": -0.45080849528312683,
      "1076": -0.23238159716129303,
      "1077": 0.28982147574424744,
      "1078": 0.9134294986724854,
      "1079": 0.8233005404472351,
      "1080": -0.19819135963916779,
      "1081": 1.2944023609161377,
      "1082": 1.0179095268249512,
      "1083": 0.18476872146129608,
      "1084": 0.0006567862583324313,
      "1085": 1.2632043361663818,
      "1086": -2.591658353805542,
      "1087": -0.25351831316947937,
      "1088": 1.1259181499481201,
      "1089": 0.014395403675734997,
      "1090": 0.05161140486598015,
      "1091": 0.04708780348300934,
      "1092": -0.053897686302661896,
      "1093": 0.057443179190158844,
      "1094": -0.003230605972930789,
      "1095": 0.008623247034847736,
      "1096": 0.01726789027452469,
      "1097": 0.03916586935520172,
      "1098": 0.014153270050883293,
      "1099": -0.017596103250980377,
      "1100": -0.02515123412013054,
      "1101": 0.01625262387096882,
      "1102": -0.05276001989841461,
      "1103": -0.015024473890662193,
      "1104": 0.014407973736524582,
      "1105": -0.05619588494300842,
      "1106": 0.06469028443098068,
      "1107": 0.03163241595029831,
      "1108": -0.048438720405101776,
      "1109": -0.05140797421336174,
      "1110": 0.06488391011953354,
      "1111": -0.016486970707774162,
      "1112": 0.0714239627122879,
      "1113": 0.061488159000873566,
      "1114": -0.06938649713993073,
      "1115": 0.07009527087211609,
      "1116": -0.04819833114743233,
      "1117": -0.006444490049034357,
      "1118": -0.00839306227862835,
      "1119": 0.05066864192485809,
      "1120": 0.054971370846033096,
      "1121": -0.024932460859417915
    }
  },
  "hiddenLayers": [
    {
      "inputMatrix": {
        "rows": 20,
        "columns": 33,
        "weights": {
          "0": -0.2796017825603485,
          "1": 0.3109084665775299,
          "2": 0.6426324248313904,
          "3": -1.5490318536758423,
          "4": -0.32276639342308044,
          "5": -0.21299375593662262,
          "6": 0.4960394501686096,
          "7": 0.3377910554409027,
          "8": 1.06841242313385,
          "9": -0.20804040133953094,
          "10": -0.5504932999610901,
          "11": 2.2361977100372314,
          "12": 0.15692000091075897,
          "13": -1.0095340013504028,
          "14": -0.4920858144760132,
          "15": 0.3505280613899231,
          "16": -1.3688528537750244,
          "17": -0.5955442190170288,
          "18": -0.18815575540065765,
          "19": -1.5813977718353271,
          "20": -0.05400253087282181,
          "21": 0.1544053554534912,
          "22": 0.2951729893684387,
          "23": 0.04161347076296806,
          "24": 0.8891313076019287,
          "25": -1.5274854898452759,
          "26": -1.6464110612869263,
          "27": -0.6480123996734619,
          "28": -1.6049621105194092,
          "29": -0.6902734041213989,
          "30": -1.1414835453033447,
          "31": -0.38685372471809387,
          "32": -0.09651806950569153,
          "33": 0.41011765599250793,
          "34": -1.8004512786865234,
          "35": -2.0306060314178467,
          "36": 1.2860592603683472,
          "37": -0.829194188117981,
          "38": 0.22501476109027863,
          "39": -1.9514446258544922,
          "40": -0.393774151802063,
          "41": 1.233478307723999,
          "42": -0.08063090592622757,
          "43": -0.16182926297187805,
          "44": 0.1783774197101593,
          "45": 0.020155202597379684,
          "46": -0.090826615691185,
          "47": -1.053183913230896,
          "48": 1.5794731378555298,
          "49": 0.020682336762547493,
          "50": 0.5370249152183533,
          "51": -1.2509030103683472,
          "52": -0.8031895756721497,
          "53": -0.10155737400054932,
          "54": 0.7389025688171387,
          "55": 0.04661444574594498,
          "56": 0.09241210669279099,
          "57": -1.8176285028457642,
          "58": 0.4418698847293854,
          "59": 2.4266107082366943,
          "60": 3.362609624862671,
          "61": -0.23169749975204468,
          "62": 0.7241447567939758,
          "63": -1.47455894947052,
          "64": 0.30168840289115906,
          "65": 0.33127573132514954,
          "66": 0.44689053297042847,
          "67": 0.5212498903274536,
          "68": 1.4461191892623901,
          "69": 0.24272847175598145,
          "70": 0.09578153491020203,
          "71": 0.6697344779968262,
          "72": -1.527675986289978,
          "73": 0.5059499740600586,
          "74": 0.405829519033432,
          "75": 0.9499382376670837,
          "76": 0.03488744795322418,
          "77": -0.7269166707992554,
          "78": -3.8735079765319824,
          "79": 1.962246060371399,
          "80": 0.8378846645355225,
          "81": 2.6074795722961426,
          "82": -1.2041276693344116,
          "83": -0.9635714888572693,
          "84": -2.070925712585449,
          "85": -1.2447383403778076,
          "86": -3.5909595489501953,
          "87": -1.5995041131973267,
          "88": 0.05359824001789093,
          "89": 0.43330857157707214,
          "90": -2.315248727798462,
          "91": -3.2319374084472656,
          "92": 0.677488386631012,
          "93": 3.407153606414795,
          "94": -2.2123823165893555,
          "95": -0.2482168823480606,
          "96": 1.4017606973648071,
          "97": -0.22345270216464996,
          "98": 0.9140785336494446,
          "99": -0.3138348162174225,
          "100": 0.399793416261673,
          "101": 0.8275395035743713,
          "102": -0.7016057968139648,
          "103": 0.22566105425357819,
          "104": -0.7906681299209595,
          "105": 2.482726812362671,
          "106": -1.410784125328064,
          "107": -0.06978181004524231,
          "108": -0.3056130111217499,
          "109": 0.4965241253376007,
          "110": -1.8659225702285767,
          "111": 0.29521241784095764,
          "112": -0.0466352216899395,
          "113": -0.46423524618148804,
          "114": -1.8510396480560303,
          "115": 1.7805771827697754,
          "116": -1.2454643249511719,
          "117": 1.0170516967773438,
          "118": 1.4905363321304321,
          "119": 3.1590003967285156,
          "120": -0.737582802772522,
          "121": 0.2844671308994293,
          "122": 1.7828706502914429,
          "123": 2.2809054851531982,
          "124": 2.824206829071045,
          "125": -0.45208266377449036,
          "126": -1.5224804878234863,
          "127": 1.0008437633514404,
          "128": -0.19567154347896576,
          "129": -0.8155794143676758,
          "130": -0.12600019574165344,
          "131": -0.8165128231048584,
          "132": 0.9906008243560791,
          "133": -2.8854031562805176,
          "134": 0.4299239218235016,
          "135": 0.19547198712825775,
          "136": 1.4855660200119019,
          "137": -0.695350170135498,
          "138": 0.21686170995235443,
          "139": -2.0935516357421875,
          "140": 1.617240309715271,
          "141": 1.5528943538665771,
          "142": 1.118931770324707,
          "143": 3.336071252822876,
          "144": -2.761521339416504,
          "145": -0.6438922882080078,
          "146": -1.565114140510559,
          "147": -0.053037986159324646,
          "148": -0.2147854119539261,
          "149": 0.36611655354499817,
          "150": -2.6963980197906494,
          "151": -1.6796082258224487,
          "152": 2.009338855743408,
          "153": 0.41043439507484436,
          "154": -3.5231332778930664,
          "155": 0.42420992255210876,
          "156": 0.9548240303993225,
          "157": 0.2629997432231903,
          "158": -0.9865859746932983,
          "159": 0.19678130745887756,
          "160": -0.28962838649749756,
          "161": 1.2565962076187134,
          "162": -3.6493418216705322,
          "163": 0.48309266567230225,
          "164": 0.2228689044713974,
          "165": 1.0929131507873535,
          "166": 1.9795640707015991,
          "167": 1.5849846601486206,
          "168": -0.29686471819877625,
          "169": 0.8491530418395996,
          "170": -0.8602868914604187,
          "171": 0.4157652258872986,
          "172": -0.4726182520389557,
          "173": 0.7887975573539734,
          "174": -0.6991707682609558,
          "175": 2.017904758453369,
          "176": -0.6909731030464172,
          "177": -1.0740346908569336,
          "178": 0.7956497073173523,
          "179": -0.8058203458786011,
          "180": -0.39196839928627014,
          "181": -2.2255516052246094,
          "182": 0.3445539176464081,
          "183": 1.2075109481811523,
          "184": 0.7205513119697571,
          "185": -0.4794546365737915,
          "186": -0.9156178832054138,
          "187": -0.6232241988182068,
          "188": 2.339071750640869,
          "189": 0.7395984530448914,
          "190": -2.2896742820739746,
          "191": 1.0770995616912842,
          "192": 1.1013743877410889,
          "193": -1.7228953838348389,
          "194": -1.25890052318573,
          "195": 2.145901918411255,
          "196": -0.8701546788215637,
          "197": 0.620856523513794,
          "198": -0.5168264508247375,
          "199": 0.06661523133516312,
          "200": 1.0207953453063965,
          "201": -2.004470109939575,
          "202": 2.3612899780273438,
          "203": 0.7282715439796448,
          "204": -0.8897255063056946,
          "205": 0.2879659831523895,
          "206": 0.9658657312393188,
          "207": 1.4070780277252197,
          "208": 0.815236508846283,
          "209": -1.0188965797424316,
          "210": 1.663251519203186,
          "211": -1.7042253017425537,
          "212": -0.12224310636520386,
          "213": 1.0138554573059082,
          "214": -0.15932883322238922,
          "215": 1.4537394046783447,
          "216": 0.3989759087562561,
          "217": 1.2958135604858398,
          "218": 0.5933465957641602,
          "219": -0.7167120575904846,
          "220": -0.3781712055206299,
          "221": 0.5141509175300598,
          "222": 0.7969169616699219,
          "223": 0.8300901651382446,
          "224": -1.5333783626556396,
          "225": -1.0390757322311401,
          "226": 0.40026530623435974,
          "227": -2.6574597358703613,
          "228": 1.6281765699386597,
          "229": -0.3476707339286804,
          "230": 0.29227563738822937,
          "231": -0.9238107204437256,
          "232": -2.2936809062957764,
          "233": -1.1831848621368408,
          "234": -1.4633673429489136,
          "235": -1.3939862251281738,
          "236": 0.996304452419281,
          "237": -1.19489324092865,
          "238": -0.3899044394493103,
          "239": 1.4309724569320679,
          "240": -0.43498337268829346,
          "241": -1.0922400951385498,
          "242": -0.8122879266738892,
          "243": -1.0559146404266357,
          "244": -0.8564996123313904,
          "245": -0.5589509010314941,
          "246": 2.0419771671295166,
          "247": 0.637450098991394,
          "248": 3.038362503051758,
          "249": -1.072494626045227,
          "250": 0.38329368829727173,
          "251": 1.9741530418395996,
          "252": -1.5819951295852661,
          "253": 3.8440756797790527,
          "254": 0.3621094524860382,
          "255": -0.8334895372390747,
          "256": 1.3435832262039185,
          "257": -0.9338799118995667,
          "258": -0.34504544734954834,
          "259": 0.21646542847156525,
          "260": -3.5153510570526123,
          "261": -2.174530029296875,
          "262": -0.10879436135292053,
          "263": -0.44724979996681213,
          "264": 2.138442039489746,
          "265": -0.03481289744377136,
          "266": 1.4861769676208496,
          "267": -3.2680063247680664,
          "268": -1.6920905113220215,
          "269": 0.5847195982933044,
          "270": 1.6671913862228394,
          "271": 0.5795850157737732,
          "272": -2.052973508834839,
          "273": -1.1625382900238037,
          "274": 0.48552781343460083,
          "275": -1.4318971633911133,
          "276": 2.8463425636291504,
          "277": -1.7837960720062256,
          "278": 0.3280181884765625,
          "279": 0.5357662439346313,
          "280": 2.483720064163208,
          "281": 0.2277200073003769,
          "282": 1.5896074771881104,
          "283": -0.8199466466903687,
          "284": 0.26932159066200256,
          "285": -0.9826716184616089,
          "286": 2.3241260051727295,
          "287": 0.8295537233352661,
          "288": 0.656778872013092,
          "289": 0.6455867886543274,
          "290": -1.9152982234954834,
          "291": -0.6374356150627136,
          "292": 0.8550053238868713,
          "293": -1.03767728805542,
          "294": -0.9876301884651184,
          "295": 0.02360767312347889,
          "296": -2.545109272003174,
          "297": 0.7164885997772217,
          "298": -2.0630486011505127,
          "299": -1.7319221496582031,
          "300": -0.17784272134304047,
          "301": 0.10394386202096939,
          "302": 3.04311203956604,
          "303": -0.20823051035404205,
          "304": -0.34283629059791565,
          "305": 0.7248891592025757,
          "306": 1.0348329544067383,
          "307": -0.9166040420532227,
          "308": 0.6970065236091614,
          "309": -1.3052126169204712,
          "310": -1.4383922815322876,
          "311": 0.5807528495788574,
          "312": 1.1067107915878296,
          "313": 0.8697590827941895,
          "314": -0.8134037256240845,
          "315": -2.3848912715911865,
          "316": -0.7980349659919739,
          "317": -0.022630399093031883,
          "318": -0.012094470672309399,
          "319": -0.40910425782203674,
          "320": -0.15007175505161285,
          "321": -0.6287090182304382,
          "322": 1.1281993389129639,
          "323": -0.6994487643241882,
          "324": 1.0855721235275269,
          "325": -1.0247637033462524,
          "326": 2.612807035446167,
          "327": -0.637836754322052,
          "328": 0.28975898027420044,
          "329": -1.3391859531402588,
          "330": -1.0101696252822876,
          "331": 1.8578941822052002,
          "332": 0.4565665125846863,
          "333": -0.02015850320458412,
          "334": -0.6902036070823669,
          "335": 1.1173421144485474,
          "336": -1.7267169952392578,
          "337": 1.3386611938476562,
          "338": 1.4124375581741333,
          "339": 2.5647552013397217,
          "340": -0.969350278377533,
          "341": 0.4432464838027954,
          "342": -1.035997748374939,
          "343": 0.11912236362695694,
          "344": 1.1711188554763794,
          "345": 0.3656854033470154,
          "346": 1.2080001831054688,
          "347": -0.4106782078742981,
          "348": -1.585227370262146,
          "349": -1.3258848190307617,
          "350": -3.3260257244110107,
          "351": 2.445777416229248,
          "352": -0.9956621527671814,
          "353": -0.8224281668663025,
          "354": -3.617433786392212,
          "355": -1.6851812601089478,
          "356": 1.2504353523254395,
          "357": 1.271797776222229,
          "358": -0.32485851645469666,
          "359": 0.8633241057395935,
          "360": 1.9525513648986816,
          "361": -2.690204620361328,
          "362": -0.9105035662651062,
          "363": 2.2961137294769287,
          "364": -1.448117733001709,
          "365": -0.7601887583732605,
          "366": 0.5509204864501953,
          "367": 0.13925009965896606,
          "368": 3.6810078620910645,
          "369": -1.1751458644866943,
          "370": 0.09741835296154022,
          "371": 0.5125622153282166,
          "372": -1.4247429370880127,
          "373": 0.24587270617485046,
          "374": 3.505011796951294,
          "375": -2.873849391937256,
          "376": 0.8252885341644287,
          "377": -0.7365145087242126,
          "378": 0.19140757620334625,
          "379": -1.7993289232254028,
          "380": -0.23762795329093933,
          "381": -1.2618175745010376,
          "382": -1.9577354192733765,
          "383": -0.4283639192581177,
          "384": -0.284146249294281,
          "385": 0.11991095542907715,
          "386": 0.36160677671432495,
          "387": -0.11461423337459564,
          "388": -0.08390150219202042,
          "389": 0.3365049958229065,
          "390": 2.596477508544922,
          "391": 0.22714874148368835,
          "392": 2.933345079421997,
          "393": -1.977986216545105,
          "394": 0.10858338326215744,
          "395": 2.031177043914795,
          "396": -0.8351004719734192,
          "397": -0.397824227809906,
          "398": -1.5338722467422485,
          "399": 0.4549201428890228,
          "400": 0.18196262419223785,
          "401": 1.6935677528381348,
          "402": 2.4272031784057617,
          "403": -0.6221873760223389,
          "404": -2.0502984523773193,
          "405": -1.2591174840927124,
          "406": 0.0668472945690155,
          "407": -0.18343207240104675,
          "408": 0.748885452747345,
          "409": -0.5769561529159546,
          "410": 0.5670360326766968,
          "411": 0.35458695888519287,
          "412": 2.2812228202819824,
          "413": 0.7851471900939941,
          "414": 0.4374031126499176,
          "415": 0.518056333065033,
          "416": 3.765422821044922,
          "417": -1.0027130842208862,
          "418": 0.5814288854598999,
          "419": 0.6574822664260864,
          "420": 1.5457696914672852,
          "421": 2.4530835151672363,
          "422": -0.11384004354476929,
          "423": -2.1521098613739014,
          "424": 2.497262716293335,
          "425": 2.0946638584136963,
          "426": -1.858571171760559,
          "427": 1.7772847414016724,
          "428": -1.0197961330413818,
          "429": 0.1773337423801422,
          "430": -0.3225473165512085,
          "431": 1.6948648691177368,
          "432": 1.1569617986679077,
          "433": 0.20499663054943085,
          "434": -0.4250207543373108,
          "435": 0.4515615999698639,
          "436": 2.4173290729522705,
          "437": 0.0833287462592125,
          "438": -0.852173388004303,
          "439": -1.416109561920166,
          "440": -0.3283095955848694,
          "441": 0.8962205052375793,
          "442": 2.245474338531494,
          "443": 2.510687828063965,
          "444": 0.07747367024421692,
          "445": 1.992968201637268,
          "446": -2.1677134037017822,
          "447": 0.3465086817741394,
          "448": 0.376371294260025,
          "449": -2.4403131008148193,
          "450": 0.9698119759559631,
          "451": 0.5993176698684692,
          "452": -2.0636112689971924,
          "453": 0.2971545159816742,
          "454": 0.5985817909240723,
          "455": 2.7915172576904297,
          "456": 0.770743727684021,
          "457": -1.5115904808044434,
          "458": 3.1167244911193848,
          "459": 0.2508428692817688,
          "460": 0.3139283061027527,
          "461": -0.8893999457359314,
          "462": -1.090840458869934,
          "463": 0.8230047225952148,
          "464": 1.0850776433944702,
          "465": 1.7255449295043945,
          "466": 0.46442678570747375,
          "467": 2.8029725551605225,
          "468": -1.9231284856796265,
          "469": 0.7842983603477478,
          "470": 0.9319738745689392,
          "471": 0.8437934517860413,
          "472": 1.5373140573501587,
          "473": -0.7877088785171509,
          "474": -1.179504632949829,
          "475": -1.047426462173462,
          "476": 0.36180970072746277,
          "477": 1.5857832431793213,
          "478": -1.1954773664474487,
          "479": 1.119497299194336,
          "480": -0.688303530216217,
          "481": 1.9098997116088867,
          "482": 0.19477583467960358,
          "483": -2.1711182594299316,
          "484": -2.2447235584259033,
          "485": 3.687656879425049,
          "486": -0.5052274465560913,
          "487": 1.2256653308868408,
          "488": -0.5793408155441284,
          "489": 0.7488523721694946,
          "490": -0.440956175327301,
          "491": -1.8037588596343994,
          "492": 2.020240545272827,
          "493": -1.4735759496688843,
          "494": -1.4430201053619385,
          "495": -0.2639268636703491,
          "496": -1.749321699142456,
          "497": -1.4922738075256348,
          "498": -0.5289081931114197,
          "499": 2.3113300800323486,
          "500": 0.8743374943733215,
          "501": -1.8578225374221802,
          "502": -1.2773511409759521,
          "503": 2.8917441368103027,
          "504": 0.4872452914714813,
          "505": 0.8021335601806641,
          "506": 0.9617359042167664,
          "507": -1.4866604804992676,
          "508": -0.11224110424518585,
          "509": -0.0824442207813263,
          "510": -0.3557082712650299,
          "511": -0.4722401201725006,
          "512": 0.37450486421585083,
          "513": -1.298816442489624,
          "514": -1.0450202226638794,
          "515": -0.5033260583877563,
          "516": -0.414461225271225,
          "517": -1.7467613220214844,
          "518": 0.9906558990478516,
          "519": -1.6299632787704468,
          "520": 0.26129698753356934,
          "521": 0.5374718308448792,
          "522": 0.5732776522636414,
          "523": 0.6088565587997437,
          "524": -0.48841506242752075,
          "525": 0.5015513300895691,
          "526": -1.1877268552780151,
          "527": 2.720512866973877,
          "528": 1.9801982641220093,
          "529": -0.5769367218017578,
          "530": 1.4165441989898682,
          "531": -0.6883096694946289,
          "532": 0.30567729473114014,
          "533": -1.3315354585647583,
          "534": 1.5260043144226074,
          "535": 0.09866875410079956,
          "536": -0.20056533813476562,
          "537": -0.8998684287071228,
          "538": 1.682812213897705,
          "539": 0.2901054918766022,
          "540": 1.079308032989502,
          "541": 0.9180226922035217,
          "542": -0.3405885696411133,
          "543": -1.783310055732727,
          "544": 1.9298964738845825,
          "545": -2.3134469985961914,
          "546": 0.4577619135379791,
          "547": 1.7241138219833374,
          "548": 0.45485249161720276,
          "549": -0.2905834913253784,
          "550": 0.1900685727596283,
          "551": 1.0305614471435547,
          "552": 1.2545106410980225,
          "553": 3.284712076187134,
          "554": -0.5883225798606873,
          "555": 0.28870075941085815,
          "556": 1.371034860610962,
          "557": 1.7375924587249756,
          "558": -3.0249176025390625,
          "559": 1.5433982610702515,
          "560": 0.6813439726829529,
          "561": -0.4319758117198944,
          "562": -1.236491322517395,
          "563": -0.9042466282844543,
          "564": 0.4697020649909973,
          "565": 0.14540088176727295,
          "566": 0.4526030719280243,
          "567": -0.6511825323104858,
          "568": 3.2241501808166504,
          "569": 1.3343024253845215,
          "570": -1.2321264743804932,
          "571": -1.1398905515670776,
          "572": 0.5236923694610596,
          "573": 0.10825642943382263,
          "574": 2.1904327869415283,
          "575": 2.5590195655822754,
          "576": 2.162095546722412,
          "577": 1.0555578470230103,
          "578": 3.2769625186920166,
          "579": -0.18016889691352844,
          "580": 0.7120838165283203,
          "581": -0.5396078824996948,
          "582": 0.28403565287590027,
          "583": 2.119215250015259,
          "584": -0.2928884029388428,
          "585": 0.8871304392814636,
          "586": -0.5358842015266418,
          "587": 2.131784439086914,
          "588": 1.3521418571472168,
          "589": -0.39225003123283386,
          "590": 0.8759582042694092,
          "591": 1.4118784666061401,
          "592": 0.37405067682266235,
          "593": -1.4719055891036987,
          "594": 0.5183255672454834,
          "595": 1.3183987140655518,
          "596": -0.5224990248680115,
          "597": -3.573781967163086,
          "598": -1.158116102218628,
          "599": 0.749545156955719,
          "600": 1.2584303617477417,
          "601": -1.3869913816452026,
          "602": -0.9789490103721619,
          "603": 1.0709680318832397,
          "604": 0.9675895571708679,
          "605": -0.020707804709672928,
          "606": -1.2112642526626587,
          "607": -0.034235406666994095,
          "608": -1.8765416145324707,
          "609": -0.4554056227207184,
          "610": 0.10757169127464294,
          "611": 0.45314639806747437,
          "612": -1.1856557130813599,
          "613": -0.76048344373703,
          "614": 1.9157335758209229,
          "615": 0.3631179928779602,
          "616": 0.2638654410839081,
          "617": 1.3330518007278442,
          "618": 0.1806984841823578,
          "619": -1.5924242734909058,
          "620": -3.5675477981567383,
          "621": -0.16342297196388245,
          "622": -0.28754308819770813,
          "623": -0.25581735372543335,
          "624": 1.1412097215652466,
          "625": -0.7854452729225159,
          "626": 0.30161044001579285,
          "627": -0.49551960825920105,
          "628": -1.9645332098007202,
          "629": -1.055379033088684,
          "630": 1.3358800411224365,
          "631": 0.5874042510986328,
          "632": 0.9151695966720581,
          "633": -1.5824538469314575,
          "634": 2.780388355255127,
          "635": 1.1084263324737549,
          "636": 1.8345881700515747,
          "637": -1.7991372346878052,
          "638": -1.021775722503662,
          "639": 0.9992417693138123,
          "640": -0.5843660831451416,
          "641": 1.5554091930389404,
          "642": 0.40583258867263794,
          "643": 0.22006335854530334,
          "644": 1.0435682535171509,
          "645": -1.7476918697357178,
          "646": 0.601207971572876,
          "647": -0.20980557799339294,
          "648": 0.129131481051445,
          "649": 0.3893097937107086,
          "650": 0.3903232514858246,
          "651": -1.6940335035324097,
          "652": -0.17399919033050537,
          "653": 1.6472712755203247,
          "654": 0.3933471441268921,
          "655": 0.014992116950452328,
          "656": 1.1695796251296997,
          "657": -2.0425140857696533,
          "658": -0.4934251606464386,
          "659": -2.3108744621276855
        }
      },
      "inputHidden": {
        "rows": 20,
        "columns": 20,
        "weights": {
          "0": -1.5825183391571045,
          "1": 1.5259058475494385,
          "2": -2.8124654293060303,
          "3": 5.887195587158203,
          "4": -0.09997247904539108,
          "5": -1.1262377500534058,
          "6": -3.731691598892212,
          "7": 3.892066717147827,
          "8": 1.7279331684112549,
          "9": -0.16140620410442352,
          "10": -0.5413157343864441,
          "11": 4.1576457023620605,
          "12": 1.8020364046096802,
          "13": -2.2577261924743652,
          "14": -4.06269645690918,
          "15": 1.922130823135376,
          "16": 1.6279970407485962,
          "17": 3.934072971343994,
          "18": 1.388715386390686,
          "19": 0.9649887084960938,
          "20": -2.843754768371582,
          "21": 0.11539939790964127,
          "22": 0.41336506605148315,
          "23": 0.9877285361289978,
          "24": 0.7499743103981018,
          "25": -0.36677542328834534,
          "26": -2.334876298904419,
          "27": -1.9934836626052856,
          "28": 3.976186513900757,
          "29": -2.4742791652679443,
          "30": -1.8535821437835693,
          "31": -0.8577861189842224,
          "32": 0.8542489409446716,
          "33": -2.795354127883911,
          "34": 0.31581148505210876,
          "35": 0.2614907920360565,
          "36": 0.16107095777988434,
          "37": 1.7932547330856323,
          "38": 0.8892727494239807,
          "39": -0.6241543889045715,
          "40": 1.853023886680603,
          "41": 1.4542242288589478,
          "42": -2.5569608211517334,
          "43": 0.25264987349510193,
          "44": -1.6173348426818848,
          "45": 2.4914920330047607,
          "46": 0.03133249282836914,
          "47": 1.419724464416504,
          "48": -2.3985259532928467,
          "49": -0.7756352424621582,
          "50": -3.226431131362915,
          "51": -2.688424825668335,
          "52": 1.0408951044082642,
          "53": 0.41029825806617737,
          "54": -3.053870916366577,
          "55": -0.0966138169169426,
          "56": 0.10115310549736023,
          "57": 1.160537600517273,
          "58": -1.6266465187072754,
          "59": 1.2051591873168945,
          "60": -0.6416444778442383,
          "61": 0.07476084679365158,
          "62": 1.1370292901992798,
          "63": -1.612332820892334,
          "64": 0.774890661239624,
          "65": -0.7872413992881775,
          "66": -4.017026424407959,
          "67": -0.4782590866088867,
          "68": 0.15111175179481506,
          "69": 0.040296752005815506,
          "70": 0.5224393606185913,
          "71": 0.7903879284858704,
          "72": -1.7028008699417114,
          "73": 0.20896831154823303,
          "74": 2.968214273452759,
          "75": 0.519896388053894,
          "76": 0.12375576049089432,
          "77": -1.595755934715271,
          "78": 0.06439154595136642,
          "79": 3.703864336013794,
          "80": 1.8919926881790161,
          "81": 1.7494511604309082,
          "82": -1.6755602359771729,
          "83": -0.9525952339172363,
          "84": -1.0487571954727173,
          "85": 0.6640253663063049,
          "86": -3.4323434829711914,
          "87": 1.2278648614883423,
          "88": 0.0037233750335872173,
          "89": -0.941382646560669,
          "90": 0.4297047257423401,
          "91": -0.7985279560089111,
          "92": 2.1438465118408203,
          "93": -3.322697639465332,
          "94": -2.113006353378296,
          "95": 0.2844206392765045,
          "96": 1.6111470460891724,
          "97": 0.9313385486602783,
          "98": 2.6077921390533447,
          "99": 4.6493120193481445,
          "100": 1.940001130104065,
          "101": 0.09126506000757217,
          "102": 0.4576496481895447,
          "103": 0.21427775919437408,
          "104": -3.1017568111419678,
          "105": -0.863377034664154,
          "106": 0.24652913212776184,
          "107": 4.172495365142822,
          "108": -1.5195943117141724,
          "109": -0.2864048480987549,
          "110": 2.600090980529785,
          "111": 2.0070929527282715,
          "112": -1.7043787240982056,
          "113": 0.5031328201293945,
          "114": -4.018571376800537,
          "115": -0.48317602276802063,
          "116": -1.0434390306472778,
          "117": 1.6629267930984497,
          "118": 0.12924206256866455,
          "119": 3.2632646560668945,
          "120": 0.9967639446258545,
          "121": 1.3132681846618652,
          "122": -0.8412237763404846,
          "123": 2.4997899532318115,
          "124": -2.74128794670105,
          "125": 1.2747846841812134,
          "126": -1.1657021045684814,
          "127": 2.2335293292999268,
          "128": -1.0709353685379028,
          "129": -1.4193283319473267,
          "130": -3.130235433578491,
          "131": 0.8285813331604004,
          "132": -0.6423066258430481,
          "133": -1.4878222942352295,
          "134": 0.2247612476348877,
          "135": 1.3062005043029785,
          "136": -0.003352538449689746,
          "137": -1.1430027484893799,
          "138": 0.12424731999635696,
          "139": 0.5966429114341736,
          "140": -0.4980393350124359,
          "141": -0.523466169834137,
          "142": -1.1224820613861084,
          "143": -0.5741207599639893,
          "144": 1.341367483139038,
          "145": -1.5300178527832031,
          "146": 0.9802492260932922,
          "147": 3.772928237915039,
          "148": 0.590334415435791,
          "149": 1.1466096639633179,
          "150": 0.5704646110534668,
          "151": -0.9681850671768188,
          "152": 1.2530527114868164,
          "153": 0.8221068382263184,
          "154": 0.8011075258255005,
          "155": -1.2623896598815918,
          "156": 0.5073779225349426,
          "157": 0.3758004605770111,
          "158": -0.42580699920654297,
          "159": -1.6182451248168945,
          "160": -1.660866141319275,
          "161": 0.9127800464630127,
          "162": -1.7138317823410034,
          "163": 2.4620308876037598,
          "164": -1.4455732107162476,
          "165": 0.07757911831140518,
          "166": -1.9548388719558716,
          "167": 2.4272611141204834,
          "168": -0.5475772023200989,
          "169": 1.8570109605789185,
          "170": -1.303360104560852,
          "171": 3.285029411315918,
          "172": -2.173058271408081,
          "173": -0.17026010155677795,
          "174": -1.2542718648910522,
          "175": 1.7668044567108154,
          "176": 0.3816016912460327,
          "177": 3.4049794673919678,
          "178": 0.6098719835281372,
          "179": 1.1506378650665283,
          "180": -0.38206467032432556,
          "181": -3.190990447998047,
          "182": 1.7175285816192627,
          "183": 1.6359628438949585,
          "184": 0.532829999923706,
          "185": 1.1784743070602417,
          "186": -1.0425103902816772,
          "187": -4.607666492462158,
          "188": 2.264460325241089,
          "189": -0.5836678743362427,
          "190": 0.1443309336900711,
          "191": 2.626748561859131,
          "192": -1.0598926544189453,
          "193": 5.028323650360107,
          "194": 1.3965427875518799,
          "195": 1.5770024061203003,
          "196": -0.9129678606987,
          "197": -0.2905382215976715,
          "198": 3.1327497959136963,
          "199": -1.9607375860214233,
          "200": -1.8168340921401978,
          "201": -1.3453601598739624,
          "202": -0.9269795417785645,
          "203": 2.328435182571411,
          "204": 1.2449474334716797,
          "205": -0.15207229554653168,
          "206": -2.407942295074463,
          "207": 1.4457656145095825,
          "208": -0.7396177053451538,
          "209": 1.462653636932373,
          "210": -1.6806410551071167,
          "211": -1.033828854560852,
          "212": 2.766345977783203,
          "213": -1.4441561698913574,
          "214": 0.7993386387825012,
          "215": 1.7061712741851807,
          "216": -0.04162511229515076,
          "217": 0.24307750165462494,
          "218": 0.689083993434906,
          "219": 1.0345014333724976,
          "220": -0.0031208698637783527,
          "221": 2.4142844676971436,
          "222": 0.4235984683036804,
          "223": 0.3128732740879059,
          "224": -3.8818697929382324,
          "225": -1.1078835725784302,
          "226": 0.4923253059387207,
          "227": 0.748344361782074,
          "228": 1.546769618988037,
          "229": -1.1191569566726685,
          "230": 0.4419412612915039,
          "231": -0.23283354938030243,
          "232": -2.4009528160095215,
          "233": -0.5688967108726501,
          "234": -3.6824429035186768,
          "235": -0.6194421648979187,
          "236": -0.06742465496063232,
          "237": 0.46750608086586,
          "238": 0.030678505077958107,
          "239": 1.2321171760559082,
          "240": 1.257030963897705,
          "241": -1.3096089363098145,
          "242": 1.4185755252838135,
          "243": 1.2658072710037231,
          "244": 0.1569528579711914,
          "245": 0.01253312174230814,
          "246": -0.31622037291526794,
          "247": -0.03925498574972153,
          "248": 0.7721140384674072,
          "249": -0.14200982451438904,
          "250": -1.234641194343567,
          "251": -0.09848049283027649,
          "252": 0.8214324712753296,
          "253": 0.21722412109375,
          "254": -0.6918365359306335,
          "255": -0.41143256425857544,
          "256": -0.008121831342577934,
          "257": -1.025255799293518,
          "258": -1.0609019994735718,
          "259": -0.576432466506958,
          "260": -1.9030529260635376,
          "261": -0.9125475883483887,
          "262": 2.791834592819214,
          "263": 1.030955195426941,
          "264": 3.2091481685638428,
          "265": -2.519594192504883,
          "266": 0.45531171560287476,
          "267": -0.3316325545310974,
          "268": 0.5148317813873291,
          "269": 0.8919366598129272,
          "270": 1.436224102973938,
          "271": 0.18020586669445038,
          "272": 0.9853572845458984,
          "273": -1.0622358322143555,
          "274": 2.087096691131592,
          "275": -1.2017219066619873,
          "276": 0.5837547779083252,
          "277": -0.6682806611061096,
          "278": 0.8127837777137756,
          "279": -0.08953769505023956,
          "280": -2.7388484477996826,
          "281": -1.748174786567688,
          "282": -0.12380719929933548,
          "283": -3.419145345687866,
          "284": 1.8192533254623413,
          "285": -0.9031691551208496,
          "286": 2.940645933151245,
          "287": -0.9797042012214661,
          "288": -0.631667971611023,
          "289": 0.23312069475650787,
          "290": 2.0010435581207275,
          "291": -0.32593202590942383,
          "292": -1.576076626777649,
          "293": 0.8144437670707703,
          "294": 0.2925031781196594,
          "295": -2.2641305923461914,
          "296": 6.1104254722595215,
          "297": -2.506592273712158,
          "298": 0.5890982747077942,
          "299": 0.47853389382362366,
          "300": 1.520244836807251,
          "301": 1.8784514665603638,
          "302": 2.4249765872955322,
          "303": -2.73114013671875,
          "304": 5.356012344360352,
          "305": -1.3821499347686768,
          "306": 1.7229703664779663,
          "307": -2.231478452682495,
          "308": -0.5117371678352356,
          "309": 0.04288066178560257,
          "310": 2.2540383338928223,
          "311": -3.8028101921081543,
          "312": 3.5711989402770996,
          "313": 0.6742885112762451,
          "314": 1.9747569561004639,
          "315": 0.3291059136390686,
          "316": 0.9527550339698792,
          "317": -2.0398781299591064,
          "318": 1.019392728805542,
          "319": 0.7298654317855835,
          "320": -5.283311367034912,
          "321": 1.4962193965911865,
          "322": -0.2655429244041443,
          "323": 2.651759147644043,
          "324": 2.696803331375122,
          "325": -2.7833054065704346,
          "326": -2.7402150630950928,
          "327": 2.7171454429626465,
          "328": 1.842109203338623,
          "329": 1.1783380508422852,
          "330": -1.4645613431930542,
          "331": 0.7521048784255981,
          "332": 1.2974278926849365,
          "333": -0.17919868230819702,
          "334": 0.7252919673919678,
          "335": -1.396396279335022,
          "336": -0.28706562519073486,
          "337": -2.498610019683838,
          "338": 1.3790593147277832,
          "339": 0.3849291503429413,
          "340": 1.728150486946106,
          "341": 1.1361875534057617,
          "342": 1.4165215492248535,
          "343": -1.3119392395019531,
          "344": -3.658264398574829,
          "345": 0.15611402690410614,
          "346": 0.06366091221570969,
          "347": -0.05830271542072296,
          "348": -0.14367440342903137,
          "349": -1.452530026435852,
          "350": 1.0171350240707397,
          "351": -2.8514244556427,
          "352": 0.9642127752304077,
          "353": 1.818928599357605,
          "354": -0.8158427476882935,
          "355": -2.589427947998047,
          "356": 1.0728851556777954,
          "357": -1.1620111465454102,
          "358": 0.45049259066581726,
          "359": -0.5393577218055725,
          "360": -0.49659398198127747,
          "361": -1.9519728422164917,
          "362": -0.8789604306221008,
          "363": 3.361577033996582,
          "364": 2.4446940422058105,
          "365": 4.3523969650268555,
          "366": -2.766951322555542,
          "367": -2.207334280014038,
          "368": 2.293309211730957,
          "369": 0.20207424461841583,
          "370": 1.3417768478393555,
          "371": -1.1270763874053955,
          "372": 2.5743789672851562,
          "373": 0.9273767471313477,
          "374": -2.62315034866333,
          "375": 3.641996383666992,
          "376": 2.5775058269500732,
          "377": -2.75032639503479,
          "378": 1.542850375175476,
          "379": -2.200218915939331,
          "380": -3.2020716667175293,
          "381": 1.2112891674041748,
          "382": -3.1314802169799805,
          "383": 2.083752393722534,
          "384": 1.8193800449371338,
          "385": 2.8844242095947266,
          "386": -2.303428888320923,
          "387": -0.5968409776687622,
          "388": 1.6713476181030273,
          "389": -2.323368549346924,
          "390": -2.1415820121765137,
          "391": 1.9563888311386108,
          "392": 1.1507396697998047,
          "393": 0.12028682976961136,
          "394": 0.14921239018440247,
          "395": 1.7546571493148804,
          "396": 1.156399130821228,
          "397": -2.8959569931030273,
          "398": -0.80686354637146,
          "399": -2.5037941932678223
        }
      },
      "inputBias": {
        "rows": 20,
        "columns": 1,
        "weights": {
          "0": 0.1557328701019287,
          "1": -2.3673501014709473,
          "2": 0.3181651830673218,
          "3": -1.3355140686035156,
          "4": -1.207033395767212,
          "5": -0.40160226821899414,
          "6": -1.218239665031433,
          "7": -0.04959237948060036,
          "8": 1.7845081090927124,
          "9": 2.4467761516571045,
          "10": -2.51412296295166,
          "11": 0.9744833707809448,
          "12": 1.164904236793518,
          "13": -0.7698072791099548,
          "14": -1.3686593770980835,
          "15": 3.6624755859375,
          "16": -1.178460955619812,
          "17": -1.540840983390808,
          "18": 1.9305329322814941,
          "19": 0.3397074341773987
        }
      },
      "forgetMatrix": {
        "rows": 20,
        "columns": 33,
        "weights": {
          "0": -1.4474787712097168,
          "1": 1.2317945957183838,
          "2": 0.37684234976768494,
          "3": -2.2841732501983643,
          "4": 2.164731740951538,
          "5": 1.7658638954162598,
          "6": -0.5931989550590515,
          "7": 1.6389826536178589,
          "8": 0.8892271518707275,
          "9": 0.33044901490211487,
          "10": -0.3463810086250305,
          "11": -1.0287076234817505,
          "12": 0.17039991915225983,
          "13": -1.555016040802002,
          "14": -0.3579476773738861,
          "15": -0.7926989793777466,
          "16": -0.6732943654060364,
          "17": 2.5157623291015625,
          "18": -1.6241956949234009,
          "19": 0.7466946244239807,
          "20": 1.0045890808105469,
          "21": -1.2211066484451294,
          "22": 0.3561966121196747,
          "23": 1.381806492805481,
          "24": 0.7393996119499207,
          "25": -1.2205133438110352,
          "26": -1.5595600605010986,
          "27": -0.6190208196640015,
          "28": 0.4055263102054596,
          "29": -2.9677679538726807,
          "30": 3.1958959102630615,
          "31": -1.8740092515945435,
          "32": -1.5996586084365845,
          "33": -1.8162275552749634,
          "34": -0.7952700853347778,
          "35": -1.5854452848434448,
          "36": 0.7033362984657288,
          "37": -0.40767261385917664,
          "38": 2.6493752002716064,
          "39": -2.2069454193115234,
          "40": 0.4944953918457031,
          "41": 0.46787816286087036,
          "42": 1.1582237482070923,
          "43": -0.13503435254096985,
          "44": 0.7960464358329773,
          "45": -2.4786853790283203,
          "46": 0.5955966114997864,
          "47": 1.8354268074035645,
          "48": 2.4688560962677,
          "49": 1.0850635766983032,
          "50": 1.6231064796447754,
          "51": -1.220025658607483,
          "52": -0.8651943802833557,
          "53": -0.41508105397224426,
          "54": 0.5687649846076965,
          "55": 1.0610699653625488,
          "56": -0.8281863927841187,
          "57": -2.0706543922424316,
          "58": -0.6694007515907288,
          "59": 1.5274226665496826,
          "60": 0.699234664440155,
          "61": -0.9111538529396057,
          "62": 1.297669768333435,
          "63": -1.0480148792266846,
          "64": -0.6041183471679688,
          "65": 0.2184101790189743,
          "66": 2.6492226123809814,
          "67": -2.935317277908325,
          "68": -1.810554027557373,
          "69": -0.28038978576660156,
          "70": -1.54209566116333,
          "71": 0.06056725233793259,
          "72": 1.0098438262939453,
          "73": 1.9909193515777588,
          "74": 1.1082383394241333,
          "75": 2.2007787227630615,
          "76": -1.3451532125473022,
          "77": 0.0013299696147441864,
          "78": -0.29419487714767456,
          "79": -0.25242504477500916,
          "80": -0.6828311085700989,
          "81": -0.038889650255441666,
          "82": 0.6889894008636475,
          "83": 0.7109081745147705,
          "84": -2.1320414543151855,
          "85": 0.36204099655151367,
          "86": -0.08834869414567947,
          "87": -0.5684837698936462,
          "88": -0.5397319793701172,
          "89": 1.6720017194747925,
          "90": -0.5551987290382385,
          "91": -1.313799262046814,
          "92": -2.4517269134521484,
          "93": -0.2381957769393921,
          "94": -0.88448566198349,
          "95": -0.3015226125717163,
          "96": -1.660341739654541,
          "97": -0.002238999120891094,
          "98": -0.903148353099823,
          "99": 1.054594874382019,
          "100": -0.7856350541114807,
          "101": -0.45946234464645386,
          "102": 0.7179370522499084,
          "103": 1.1829499006271362,
          "104": 1.4386744499206543,
          "105": -1.6714054346084595,
          "106": 1.5988616943359375,
          "107": 1.4829695224761963,
          "108": -0.5990795493125916,
          "109": -1.6849706172943115,
          "110": 1.7898204326629639,
          "111": 1.148621678352356,
          "112": -0.8630507588386536,
          "113": -0.1847168356180191,
          "114": -0.6840442419052124,
          "115": -0.09898102283477783,
          "116": 1.4642490148544312,
          "117": -0.6003682613372803,
          "118": -0.6400941610336304,
          "119": -0.3015124499797821,
          "120": -1.9561363458633423,
          "121": 0.7216673493385315,
          "122": 0.159169539809227,
          "123": -0.23271024227142334,
          "124": 2.06860089302063,
          "125": 0.08367649465799332,
          "126": -0.7639631032943726,
          "127": -1.1893870830535889,
          "128": -1.4225157499313354,
          "129": 0.21521508693695068,
          "130": 1.1244045495986938,
          "131": -0.4298895597457886,
          "132": -0.35724788904190063,
          "133": 1.7485541105270386,
          "134": 0.6211337447166443,
          "135": -0.9796083569526672,
          "136": 2.0200657844543457,
          "137": -0.02520826831459999,
          "138": -0.9522894024848938,
          "139": 1.7361682653427124,
          "140": -0.6391838788986206,
          "141": 0.5758318901062012,
          "142": -1.4633877277374268,
          "143": -0.19616752862930298,
          "144": 1.6178998947143555,
          "145": -1.2932201623916626,
          "146": -0.8131847977638245,
          "147": -0.3738504648208618,
          "148": -1.4186893701553345,
          "149": -0.4229595959186554,
          "150": 0.11654109507799149,
          "151": 0.9949967861175537,
          "152": -0.2916159927845001,
          "153": -2.1604435443878174,
          "154": 0.7308421730995178,
          "155": 1.83810555934906,
          "156": -0.5972972512245178,
          "157": -0.12834839522838593,
          "158": -2.0973379611968994,
          "159": -1.6021243333816528,
          "160": -0.5457762479782104,
          "161": -2.8586995601654053,
          "162": 2.730907917022705,
          "163": 0.08298361301422119,
          "164": -0.16142554581165314,
          "165": -0.47626012563705444,
          "166": 1.751526951789856,
          "167": 3.5256881713867188,
          "168": -1.550865650177002,
          "169": 0.7892826795578003,
          "170": -1.4889041185379028,
          "171": 1.503887414932251,
          "172": 0.5525946617126465,
          "173": -1.5062777996063232,
          "174": -1.1427452564239502,
          "175": 1.2754231691360474,
          "176": -1.1804836988449097,
          "177": 0.18062861263751984,
          "178": 2.169344902038574,
          "179": -0.49540814757347107,
          "180": 0.6216675639152527,
          "181": -0.8135935664176941,
          "182": -1.2267972230911255,
          "183": 1.7852429151535034,
          "184": -0.6962133646011353,
          "185": -0.5746312737464905,
          "186": -0.5888908505439758,
          "187": -0.503669798374176,
          "188": 1.6343551874160767,
          "189": 2.124626398086548,
          "190": -0.2052203118801117,
          "191": 0.4176464080810547,
          "192": 0.3231434226036072,
          "193": 0.5188438892364502,
          "194": -1.1668100357055664,
          "195": 0.9242596626281738,
          "196": 2.0819859504699707,
          "197": -0.10986339300870895,
          "198": -0.6245896220207214,
          "199": 0.08247252553701401,
          "200": -3.7523880004882812,
          "201": -0.04073362052440643,
          "202": -1.0642194747924805,
          "203": 0.7828696370124817,
          "204": 1.5448946952819824,
          "205": -2.9284627437591553,
          "206": 0.6264449954032898,
          "207": -0.4135070741176605,
          "208": 0.9533891677856445,
          "209": -0.6308804750442505,
          "210": -1.2402962446212769,
          "211": 0.9432657361030579,
          "212": -0.8041717410087585,
          "213": 0.549701988697052,
          "214": -0.31666502356529236,
          "215": 0.017380153760313988,
          "216": -0.6845764517784119,
          "217": 0.6598410606384277,
          "218": 1.62482750415802,
          "219": 0.8203267455101013,
          "220": -0.016504835337400436,
          "221": -0.010715257376432419,
          "222": -0.3649829030036926,
          "223": 0.3014151155948639,
          "224": -0.2553665041923523,
          "225": 0.4072664678096771,
          "226": 1.6370456218719482,
          "227": 0.7822225689888,
          "228": 0.5514311194419861,
          "229": -0.5219585299491882,
          "230": 0.13347585499286652,
          "231": -1.8889151811599731,
          "232": -1.455350399017334,
          "233": -1.3518906831741333,
          "234": 0.5053066611289978,
          "235": 0.04703816771507263,
          "236": -0.8643422722816467,
          "237": 1.1529951095581055,
          "238": 0.9737118482589722,
          "239": 0.30393609404563904,
          "240": -0.16344977915287018,
          "241": -1.6333528757095337,
          "242": -0.4006057679653168,
          "243": 1.302790641784668,
          "244": 0.2847881317138672,
          "245": 0.8472290635108948,
          "246": 1.0714755058288574,
          "247": 0.8265618681907654,
          "248": 1.392234444618225,
          "249": -1.147264838218689,
          "250": 1.9311939477920532,
          "251": -0.18336479365825653,
          "252": 0.6925477981567383,
          "253": -0.7199305891990662,
          "254": -1.5434602499008179,
          "255": 1.4145725965499878,
          "256": 0.3899988830089569,
          "257": -0.9558526277542114,
          "258": -2.3323535919189453,
          "259": 1.971476674079895,
          "260": -0.7830536365509033,
          "261": 0.8095013499259949,
          "262": 0.8999258875846863,
          "263": -0.9997589588165283,
          "264": 0.9301437735557556,
          "265": 0.36438924074172974,
          "266": -0.8590654730796814,
          "267": -0.2529257833957672,
          "268": -0.3042081594467163,
          "269": -1.1166669130325317,
          "270": 1.4323639869689941,
          "271": -2.021677017211914,
          "272": -0.622261643409729,
          "273": -1.2065800428390503,
          "274": 0.8822795748710632,
          "275": -0.5203119516372681,
          "276": 0.49741774797439575,
          "277": -0.9595189690589905,
          "278": -2.3078866004943848,
          "279": -1.7715489864349365,
          "280": -2.3855884075164795,
          "281": 0.4223169684410095,
          "282": 1.6818184852600098,
          "283": -1.0075081586837769,
          "284": 0.46598973870277405,
          "285": 0.6587284803390503,
          "286": -0.8365707397460938,
          "287": 0.476774662733078,
          "288": 0.22199197113513947,
          "289": -1.5978442430496216,
          "290": -2.9821033477783203,
          "291": -1.0911844968795776,
          "292": 0.2968049943447113,
          "293": -3.9489243030548096,
          "294": 0.45201805233955383,
          "295": -1.8413680791854858,
          "296": -0.38193053007125854,
          "297": 1.8023288249969482,
          "298": -1.955095887184143,
          "299": -0.21469861268997192,
          "300": 1.1047184467315674,
          "301": 0.865451991558075,
          "302": -1.1546603441238403,
          "303": -1.209533929824829,
          "304": -1.2364280223846436,
          "305": 0.4492417871952057,
          "306": -0.6334123015403748,
          "307": -0.1298438161611557,
          "308": 1.8356798887252808,
          "309": 1.373894214630127,
          "310": -3.0280585289001465,
          "311": 0.3462681770324707,
          "312": -1.8825323581695557,
          "313": -1.395641803741455,
          "314": -1.0270745754241943,
          "315": 0.2636110186576843,
          "316": -1.0935735702514648,
          "317": 1.2508213520050049,
          "318": -0.35752740502357483,
          "319": -2.720804214477539,
          "320": -1.0505412817001343,
          "321": -0.7532541751861572,
          "322": 3.260833978652954,
          "323": 0.31052955985069275,
          "324": 1.3012083768844604,
          "325": 1.7111926078796387,
          "326": 0.25305482745170593,
          "327": -0.23247136175632477,
          "328": 0.27330076694488525,
          "329": 3.749176025390625,
          "330": 1.041021704673767,
          "331": -0.5228220820426941,
          "332": 0.30026423931121826,
          "333": -0.32840093970298767,
          "334": 0.974933385848999,
          "335": 1.105937123298645,
          "336": -1.4736241102218628,
          "337": 2.774641513824463,
          "338": 1.2484339475631714,
          "339": 1.7965593338012695,
          "340": -0.5754332542419434,
          "341": -1.8490854501724243,
          "342": -1.2479461431503296,
          "343": 0.8450131416320801,
          "344": 0.13276264071464539,
          "345": 0.9865995049476624,
          "346": 2.3702657222747803,
          "347": -0.4320739209651947,
          "348": 0.1611357480287552,
          "349": 0.3678165376186371,
          "350": -2.2752180099487305,
          "351": -1.8474690914154053,
          "352": 1.7147574424743652,
          "353": -0.018549403175711632,
          "354": -1.5607355833053589,
          "355": -0.7660642266273499,
          "356": -0.2823951542377472,
          "357": 1.4893743991851807,
          "358": -2.737966537475586,
          "359": 0.6248860955238342,
          "360": 0.6498792171478271,
          "361": -0.63717120885849,
          "362": -1.8336549997329712,
          "363": 1.0363435745239258,
          "364": -0.7169930934906006,
          "365": -2.5499420166015625,
          "366": -0.7514491677284241,
          "367": 0.10828547179698944,
          "368": -0.7007623314857483,
          "369": -0.4430080056190491,
          "370": -2.785518169403076,
          "371": -0.4387508034706116,
          "372": 2.4305946826934814,
          "373": 0.20707347989082336,
          "374": 1.8725372552871704,
          "375": 0.8002610802650452,
          "376": -0.42997628450393677,
          "377": -3.32719349861145,
          "378": 0.2473369687795639,
          "379": -1.3895071744918823,
          "380": 1.5740222930908203,
          "381": 0.929990828037262,
          "382": -0.7445467710494995,
          "383": 1.49777352809906,
          "384": -1.4514656066894531,
          "385": 0.26807165145874023,
          "386": -1.293070912361145,
          "387": -0.46759986877441406,
          "388": -0.8721740245819092,
          "389": -1.5242441892623901,
          "390": 0.6166538000106812,
          "391": 1.0818456411361694,
          "392": -1.4030044078826904,
          "393": -2.1132843494415283,
          "394": 0.8340814709663391,
          "395": 1.792617678642273,
          "396": -0.9837666153907776,
          "397": 1.890624761581421,
          "398": -1.4878305196762085,
          "399": 0.16672958433628082,
          "400": -3.060234308242798,
          "401": 0.6809358596801758,
          "402": 0.2847074866294861,
          "403": -1.4686782360076904,
          "404": 0.09676071256399155,
          "405": 0.4499114751815796,
          "406": 2.129732370376587,
          "407": 1.0207887887954712,
          "408": -1.9842476844787598,
          "409": 2.4960858821868896,
          "410": 0.2745448648929596,
          "411": 1.268568515777588,
          "412": -2.5851659774780273,
          "413": 2.2346372604370117,
          "414": -1.8919316530227661,
          "415": -0.5410020351409912,
          "416": -0.8898707032203674,
          "417": 1.960195541381836,
          "418": 1.5070934295654297,
          "419": -2.6153132915496826,
          "420": 0.06077307462692261,
          "421": -3.2400166988372803,
          "422": 0.19763879477977753,
          "423": 0.4877418279647827,
          "424": -0.2706911861896515,
          "425": 0.4875614047050476,
          "426": -0.08280106633901596,
          "427": 0.3731452226638794,
          "428": 2.5703537464141846,
          "429": 0.38199368119239807,
          "430": 0.23821820318698883,
          "431": 0.6430957913398743,
          "432": -1.2690268754959106,
          "433": -0.3931024670600891,
          "434": -0.5307000875473022,
          "435": -1.0734410285949707,
          "436": 0.12687695026397705,
          "437": -0.6244863271713257,
          "438": 4.157536506652832,
          "439": -0.8476789593696594,
          "440": 0.12030548602342606,
          "441": 2.099102258682251,
          "442": -2.2307140827178955,
          "443": -1.7209053039550781,
          "444": -0.7568764686584473,
          "445": 0.6507677435874939,
          "446": 0.6589599251747131,
          "447": 0.645257294178009,
          "448": 1.0032778978347778,
          "449": 0.7240496873855591,
          "450": 0.29224568605422974,
          "451": 0.32529234886169434,
          "452": 0.314284086227417,
          "453": -2.2701897621154785,
          "454": -0.34537816047668457,
          "455": -1.6583890914916992,
          "456": -0.6748644709587097,
          "457": -1.4003164768218994,
          "458": -1.9419575929641724,
          "459": -0.1825459897518158,
          "460": -1.174970030784607,
          "461": -0.36860668659210205,
          "462": -2.2695112228393555,
          "463": 0.11789987236261368,
          "464": -0.6743555665016174,
          "465": -0.3854180872440338,
          "466": 0.6765155792236328,
          "467": 0.839250922203064,
          "468": -0.5114063024520874,
          "469": 1.097962737083435,
          "470": -0.5015988945960999,
          "471": 1.8313491344451904,
          "472": 0.4301183819770813,
          "473": -2.2065320014953613,
          "474": 0.17809511721134186,
          "475": 0.008014677092432976,
          "476": 1.0980662107467651,
          "477": 2.03206729888916,
          "478": 0.19330258667469025,
          "479": 3.168508529663086,
          "480": 1.243861436843872,
          "481": 1.541238784790039,
          "482": -0.6732467412948608,
          "483": -1.0020766258239746,
          "484": -0.29145777225494385,
          "485": 1.2700413465499878,
          "486": -0.03629795089364052,
          "487": -2.405458927154541,
          "488": -0.19768352806568146,
          "489": -0.8754122853279114,
          "490": -0.5073885321617126,
          "491": -1.0670799016952515,
          "492": 0.8292881846427917,
          "493": -0.7531750798225403,
          "494": -2.1128220558166504,
          "495": -0.87745201587677,
          "496": -0.2689904570579529,
          "497": 0.30014893412590027,
          "498": 0.03980754688382149,
          "499": -3.0077333450317383,
          "500": -2.557403087615967,
          "501": 1.106268048286438,
          "502": -1.2901805639266968,
          "503": -0.8681495189666748,
          "504": -1.854412317276001,
          "505": -1.7500667572021484,
          "506": -0.06415705382823944,
          "507": 1.424482822418213,
          "508": 1.4331692457199097,
          "509": -0.7986747026443481,
          "510": -0.4893973171710968,
          "511": -1.086238980293274,
          "512": 2.2928876876831055,
          "513": 1.8286241292953491,
